svm_type c_svc
kernel_type rbf
gamma 0.125
nr_class 2
total_sv 40
rho -0.0596624383300066
label 1 -1
nr_sv 20 20
SV
1.0 1:0.0 2:0.972 3:0.06 4:0.5 5:0.365 6:0.007 7:0.0 8:0.2 
1.0 1:0.0 2:0.972 3:0.06 4:0.5 5:0.365 6:0.006 7:0.0 8:0.2 
1.0 1:1.0 2:0.972 3:0.06 4:0.5 5:0.288 6:0.034 7:0.0 8:0.1 
1.0 1:0.0 2:0.972 3:0.06 4:0.5 5:0.365 6:0.002 7:0.0 8:0.2 
1.0 1:1.0 2:1.0 3:0.421 4:0.5 5:0.438 6:0.283 7:0.077 8:1.0 
0.23353918527246875 1:0.0 2:0.972 3:0.06 4:0.5 5:0.397 6:0.019 7:0.0 8:0.2 
1.0 1:1.0 2:0.972 3:0.252 4:0.5 5:0.559 6:0.182 7:0.059 8:0.9 
1.0 1:0.0 2:0.972 3:0.06 4:0.5 5:0.397 6:0.018 7:0.0 8:0.2 
1.0 1:0.0 2:0.972 3:0.06 4:0.5 5:0.365 6:0.006 7:0.0 8:0.2 
1.0 1:0.0 2:0.972 3:0.06 4:0.5 5:0.365 6:0.014 7:0.0 8:0.2 
0.94425159252287 1:1.0 2:1.0 3:1.0 4:0.5 5:8.046 6:0.731 7:0.667 8:1.0 
1.0 1:1.0 2:0.972 3:0.097 4:0.5 5:0.416 6:0.012 7:0.0 8:0.2 
1.0 1:0.0 2:0.972 3:0.06 4:0.5 5:0.397 6:0.015 7:0.0 8:0.2 
1.0 1:1.0 2:0.972 3:0.417 4:0.5 5:0.665 6:0.38 7:0.077 8:0.9 
1.0 1:1.0 2:0.204 3:0.45 4:0.884 5:0.483 6:0.039 7:0.08 8:0.9 
1.0 1:1.0 2:1.0 3:0.694 4:0.5 5:0.575 6:0.313 7:0.267 8:1.0 
0.6437350263553688 1:1.0 2:0.75 3:0.421 4:0.389 5:1.829 6:0.015 7:0.009 8:1.0 
1.0 1:1.0 2:0.972 3:0.06 4:0.5 5:0.288 6:0.006 7:0.0 8:0.1 
1.0 1:0.0 2:0.216 3:0.601 4:0.122 5:0.785 6:0.486 7:0.48 8:0.4 
1.0 1:0.0 2:0.527 3:0.601 4:0.277 5:0.668 6:0.787 7:0.8 8:0.4 
-1.0 1:1.0 2:0.972 3:0.0 4:0.5 5:0.087 6:0.0 7:0.0 8:0.0 
-1.0 1:1.0 2:0.972 3:0.0 4:0.5 5:0.167 6:0.0 7:0.0 8:0.0 
-1.0 1:1.0 2:0.972 3:0.0 4:0.5 5:0.218 6:0.0 7:0.0 8:0.0 
-1.0 1:0.0 2:0.0 3:0.0 4:0.0 5:0.0 6:0.001 7:0.0 8:0.1 
-1.0 1:1.0 2:0.972 3:0.0 4:0.5 5:2.159 6:0.0 7:0.0 8:0.0 
-0.8905201880362204 1:0.0 2:0.0 3:0.0 4:0.0 5:0.0 6:0.0 7:0.0 8:0.1 
-1.0 1:0.0 2:0.0 3:0.0 4:0.0 5:0.0 6:0.0 7:0.0 8:0.1 
-1.0 1:0.0 2:0.0 3:0.0 4:0.0 5:0.0 6:0.0 7:0.0 8:0.1 
-1.0 1:0.0 2:0.0 3:0.0 4:0.0 5:0.0 6:0.0 7:0.0 8:0.1 
-1.0 1:0.0 2:0.0 3:0.0 4:0.0 5:0.0 6:0.0 7:0.0 8:0.1 
-1.0 1:1.0 2:1.0 3:1.0 4:0.5 5:1.164 6:0.996 7:1.0 8:1.0 
-1.0 1:1.0 2:1.0 3:0.228 4:0.5 5:0.114 6:0.076 7:0.069 8:1.0 
-1.0 1:1.0 2:1.0 3:0.107 4:0.5 5:0.054 6:0.018 7:0.009 8:0.7 
-1.0 1:1.0 2:0.009 3:0.02 4:0.981 5:0.03 6:0.007 7:0.0 8:0.7 
-1.0 1:1.0 2:1.0 3:0.06 4:0.5 5:0.137 6:0.034 7:0.043 8:0.7 
-0.8027455965545645 1:1.0 2:0.305 3:0.06 4:0.166 5:0.137 6:0.016 7:0.026 8:0.3 
-1.0 1:1.0 2:0.251 3:0.06 4:0.861 5:0.137 6:0.015 7:0.017 8:0.3 
-1.0 1:1.0 2:1.0 3:0.06 4:0.5 5:0.196 6:0.017 7:0.017 8:1.0 
-0.12826001955992292 1:1.0 2:0.0 3:0.0 4:0.986 5:0.187 6:0.001 7:0.0 8:0.1 
-1.0 1:1.0 2:1.0 3:1.0 4:0.5 5:1.209 6:0.887 7:0.914 8:1.0 
