svm_type c_svc
kernel_type rbf
gamma 0.125
nr_class 2
total_sv 2
rho 1.0
label 1 -1
nr_sv 1 1
SV
1.0 1:0.0 2:0.967 3:0.034 4:0.5 5:0.983 6:0.012 7:0.081 8:0.7 
-1.0 1:0.0 2:0.967 3:0.034 4:0.5 5:0.983 6:0.012 7:0.081 8:0.7 
