svm_type c_svc
kernel_type rbf
gamma 0.125
nr_class 2
total_sv 48
rho 0.4146459126186478
label 1 -1
nr_sv 22 26
SV
1.0 1:1.0 2:0.086 3:0.023 4:0.881 5:0.012 6:0.0 7:0.0 8:0.3 
1.0 1:0.0 2:0.116 3:0.04 4:0.656 5:0.351 6:0.001 7:0.0 8:0.1 
1.0 1:0.0 2:0.185 3:0.013 4:0.148 5:0.322 6:0.0 7:0.0 8:0.1 
1.0 1:1.0 2:0.648 3:0.353 4:0.38 5:0.304 6:0.008 7:0.012 8:0.7 
1.0 1:1.0 2:0.204 3:0.236 4:0.157 5:0.305 6:0.049 7:0.08 8:0.5 
1.0 1:0.0 2:0.066 3:0.023 4:0.815 5:0.012 6:0.0 7:0.0 8:0.1 
0.6047126003992542 1:0.0 2:0.076 3:0.016 4:0.886 5:0.012 6:0.0 7:0.0 8:0.1 
1.0 1:1.0 2:0.112 3:0.023 4:0.868 5:0.012 6:0.0 7:0.0 8:0.3 
1.0 1:1.0 2:0.647 3:0.031 4:0.612 5:0.092 6:0.007 7:0.0 8:0.2 
1.0 1:0.0 2:0.06 3:0.009 4:0.37 5:0.146 6:0.002 7:0.0 8:0.1 
1.0 1:0.0 2:0.609 3:0.027 4:0.593 5:0.12 6:0.005 7:0.03 8:0.2 
1.0 1:1.0 2:0.086 3:0.023 4:0.881 5:0.012 6:0.0 7:0.0 8:0.3 
1.0 1:0.0 2:0.116 3:0.04 4:0.656 5:0.351 6:0.001 7:0.0 8:0.1 
1.0 1:0.0 2:0.185 3:0.013 4:0.148 5:0.322 6:0.0 7:0.0 8:0.1 
1.0 1:1.0 2:0.648 3:0.353 4:0.38 5:0.304 6:0.008 7:0.012 8:0.7 
1.0 1:1.0 2:0.204 3:0.236 4:0.157 5:0.305 6:0.049 7:0.08 8:0.5 
1.0 1:0.0 2:0.066 3:0.023 4:0.815 5:0.012 6:0.0 7:0.0 8:0.1 
0.9958271135662894 1:0.0 2:0.076 3:0.016 4:0.886 5:0.012 6:0.0 7:0.0 8:0.1 
1.0 1:1.0 2:0.106 3:0.023 4:0.871 5:0.012 6:0.0 7:0.0 8:0.3 
1.0 1:0.0 2:0.0 3:0.0 4:0.0 5:0.0 6:0.0 7:0.0 8:0.1 
1.0 1:0.0 2:0.057 3:0.008 4:0.369 5:0.1 6:0.002 7:0.0 8:0.1 
1.0 1:0.0 2:0.609 3:0.027 4:0.593 5:0.12 6:0.004 7:0.03 8:0.2 
-0.6885454054430349 1:1.0 2:0.0 3:0.0 4:0.0 5:0.0 6:0.0 7:0.0 8:0.0 
-1.0 1:0.0 2:0.22 3:0.023 4:0.351 5:0.849 6:0.008 7:0.0 8:0.1 
-1.0 1:1.0 2:0.197 3:0.025 4:0.823 5:0.063 6:0.007 7:0.019 8:0.7 
-1.0 1:1.0 2:0.059 3:0.009 4:0.74 5:0.119 6:0.002 7:0.0 8:0.1 
-1.0 1:1.0 2:0.059 3:0.009 4:0.74 5:0.156 6:0.002 7:0.0 8:0.1 
-1.0 1:1.0 2:0.059 3:0.009 4:0.74 5:0.192 6:0.002 7:0.0 8:0.1 
-0.29558401477462626 1:1.0 2:0.059 3:0.009 4:0.74 5:0.229 6:0.002 7:0.0 8:0.1 
-1.0 1:0.0 2:0.0 3:0.0 4:0.0 5:0.0 6:0.002 7:0.0 8:0.1 
-0.898406762229787 1:1.0 2:0.197 3:0.043 4:0.823 5:0.108 6:0.011 7:0.034 8:0.7 
-1.0 1:1.0 2:0.0 3:0.0 4:0.0 5:0.0 6:0.0 7:0.0 8:0.0 
-0.008502713476592356 1:1.0 2:0.576 3:0.742 4:0.501 5:0.437 6:0.485 7:0.0 8:0.5 
-1.0 1:0.0 2:0.22 3:0.023 4:0.351 5:0.849 6:0.008 7:0.0 8:0.1 
-1.0 1:1.0 2:0.889 3:0.028 4:0.491 5:0.014 6:0.02 7:0.069 8:0.3 
-0.9228314426869115 1:1.0 2:0.87 3:0.036 4:0.5 5:0.018 6:0.019 7:0.069 8:0.3 
-0.030416742717330365 1:1.0 2:0.87 3:0.025 4:0.5 5:0.013 6:0.019 7:0.069 8:0.3 
-1.0 1:1.0 2:0.87 3:0.025 4:0.5 5:0.013 6:0.017 7:0.069 8:0.3 
-0.42841259591355846 1:1.0 2:0.87 3:0.025 4:0.5 5:0.013 6:0.016 7:0.069 8:0.7 
-0.3278400367237029 1:1.0 2:0.87 3:0.926 4:0.5 5:0.499 6:0.907 7:0.845 8:0.5 
-1.0 1:1.0 2:0.197 3:0.022 4:0.823 5:0.055 6:0.006 7:0.017 8:0.7 
-1.0 1:1.0 2:0.204 3:0.893 4:0.168 5:0.515 6:0.026 7:0.121 8:0.3 
-1.0 1:1.0 2:0.059 3:0.008 4:0.74 5:0.104 6:0.002 7:0.0 8:0.1 
-1.0 1:1.0 2:0.059 3:0.008 4:0.74 5:0.136 6:0.002 7:0.0 8:0.1 
-1.0 1:1.0 2:0.059 3:0.008 4:0.74 5:0.168 6:0.002 7:0.0 8:0.1 
-1.0 1:1.0 2:0.059 3:0.008 4:0.74 5:0.2 6:0.002 7:0.0 8:0.1 
-1.0 1:0.0 2:0.0 3:0.0 4:0.0 5:0.0 6:0.001 7:0.0 8:0.1 
-1.0 1:1.0 2:0.197 3:0.043 4:0.823 5:0.108 6:0.011 7:0.034 8:0.7 
