svm_type c_svc
kernel_type rbf
gamma 0.125
nr_class 2
total_sv 4
rho -0.7165395021438599
label 1 -1
nr_sv 2 2
SV
1.0 1:0.0 2:0.423 3:0.114 4:0.504 5:0.293 6:0.001 7:0.0 8:0.1 
1.0 1:0.0 2:0.423 3:0.154 4:0.504 5:0.396 6:0.001 7:0.0 8:0.1 
-1.0 1:1.0 2:0.211 3:0.0 4:0.123 5:0.287 6:0.001 7:0.0 8:0.2 
-1.0 1:1.0 2:0.211 3:0.0 4:0.123 5:0.441 6:0.001 7:0.0 8:0.2 
