svm_type c_svc
kernel_type rbf
gamma 0.125
nr_class 2
total_sv 19
rho 0.5923838036893468
label 1 -1
nr_sv 8 11
SV
1.0 1:0.0 2:0.967 3:0.031 4:0.5 5:0.984 6:0.011 7:0.071 8:0.7 
1.0 1:0.0 2:0.656 3:0.015 4:0.36 5:0.158 6:0.003 7:0.015 8:0.3 
1.0 1:0.0 2:0.793 3:0.086 4:0.496 5:0.216 6:0.002 7:0.0 8:0.1 
1.0 1:0.0 2:0.063 3:0.033 4:0.124 5:0.481 6:0.0 7:0.0 8:0.1 
1.0 1:0.0 2:0.155 3:0.074 4:0.439 5:1.0 6:0.013 7:0.0 8:0.1 
1.0 1:0.0 2:0.793 3:0.104 4:0.496 5:0.259 6:0.001 7:0.0 8:0.1 
1.0 1:0.0 2:0.793 3:0.091 4:0.496 5:0.227 6:0.002 7:0.0 8:0.1 
1.0 1:0.0 2:0.454 3:1.0 4:0.5 5:1.0 6:0.003 7:0.0 8:0.1 
-1.0 1:0.0 2:0.0 3:0.0 4:0.0 5:0.0 6:0.0 7:0.0 8:0.0 
-1.0 1:0.0 2:1.0 3:0.207 4:0.5 5:0.104 6:0.042 7:0.167 8:0.5 
-1.0 1:0.0 2:0.981 3:0.1 4:0.509 5:0.091 6:0.003 7:0.024 8:0.1 
-1.0 1:0.0 2:0.966 3:0.058 4:0.501 5:0.17 6:0.036 7:0.143 8:0.3 
-0.3330417174574382 1:1.0 2:1.0 3:0.732 4:0.5 5:0.574 6:0.915 7:0.69 8:0.3 
-0.05081897580898428 1:1.0 2:0.98 3:0.683 4:0.5 5:0.57 6:0.91 7:0.69 8:1.0 
-0.5383920308727348 1:1.0 2:0.933 3:0.066 4:0.505 5:0.519 6:0.031 7:0.024 8:0.3 
-0.07774727586084265 1:1.0 2:0.093 3:0.029 4:0.763 5:0.517 6:0.0 7:0.0 8:0.1 
-1.0 1:1.0 2:0.933 3:0.066 4:0.505 5:0.595 6:0.031 7:0.024 8:0.3 
-1.0 1:1.0 2:0.093 3:0.029 4:0.763 5:0.593 6:0.0 7:0.0 8:0.1 
-1.0 1:1.0 2:0.069 3:0.033 4:0.844 5:0.595 6:0.008 7:0.024 8:0.1 
