svm_type c_svc
kernel_type rbf
gamma 0.125
nr_class 2
total_sv 25
rho 0.5524842600971777
label 1 -1
nr_sv 11 14
SV
1.0 1:1.0 2:0.086 3:0.023 4:0.881 5:0.012 6:0.0 7:0.0 8:0.3 
1.0 1:0.0 2:0.116 3:0.04 4:0.656 5:0.351 6:0.001 7:0.0 8:0.1 
1.0 1:0.0 2:0.185 3:0.013 4:0.148 5:0.322 6:0.0 7:0.0 8:0.1 
1.0 1:1.0 2:0.648 3:0.353 4:0.38 5:0.304 6:0.008 7:0.012 8:0.7 
1.0 1:1.0 2:0.204 3:0.236 4:0.157 5:0.305 6:0.049 7:0.08 8:0.5 
1.0 1:0.0 2:0.066 3:0.023 4:0.815 5:0.012 6:0.0 7:0.0 8:0.1 
1.0 1:0.0 2:0.076 3:0.016 4:0.886 5:0.012 6:0.0 7:0.0 8:0.1 
1.0 1:1.0 2:0.106 3:0.023 4:0.871 5:0.012 6:0.0 7:0.0 8:0.3 
1.0 1:0.0 2:0.0 3:0.0 4:0.0 5:0.0 6:0.0 7:0.0 8:0.1 
1.0 1:0.0 2:0.061 3:0.006 4:0.37 5:0.075 6:0.001 7:0.0 8:0.1 
1.0 1:0.0 2:0.609 3:0.027 4:0.593 5:0.12 6:0.004 7:0.03 8:0.2 
-1.0 1:1.0 2:0.0 3:0.0 4:0.0 5:0.0 6:0.0 7:0.0 8:0.0 
-1.0 1:0.0 2:0.22 3:0.023 4:0.351 5:0.849 6:0.008 7:0.0 8:0.1 
-0.45967147729912217 1:1.0 2:0.889 3:0.02 4:0.491 5:0.01 6:0.016 7:0.058 8:0.3 
-1.0 1:1.0 2:0.87 3:0.019 4:0.5 5:0.009 6:0.012 7:0.058 8:0.7 
-0.2943183410896068 1:1.0 2:0.87 3:0.945 4:0.5 5:0.5 6:0.929 7:0.87 8:0.5 
-1.0 1:1.0 2:0.197 3:0.016 4:0.823 5:0.041 6:0.005 7:0.014 8:0.7 
-0.6268142981430689 1:1.0 2:0.0 3:0.0 4:0.0 5:0.0 6:0.002 7:0.0 8:0.5 
-0.5415355013160728 1:1.0 2:0.204 3:0.921 4:0.168 5:0.511 6:0.02 7:0.101 8:0.3 
-0.4024840260513221 1:1.0 2:0.0 3:0.0 4:0.0 5:0.0 6:0.0 7:0.0 8:0.1 
-1.0 1:1.0 2:0.059 3:0.006 4:0.739 5:0.077 6:0.001 7:0.0 8:0.1 
-1.0 1:1.0 2:0.059 3:0.006 4:0.739 5:0.1 6:0.001 7:0.0 8:0.1 
-1.0 1:1.0 2:0.059 3:0.006 4:0.739 5:0.124 6:0.001 7:0.0 8:0.1 
-1.0 1:1.0 2:0.059 3:0.006 4:0.739 5:0.148 6:0.001 7:0.0 8:0.1 
-0.6751763561008073 1:1.0 2:0.059 3:0.006 4:0.739 5:0.171 6:0.001 7:0.0 8:0.1 
