svm_type c_svc
kernel_type rbf
gamma 0.125
nr_class 2
total_sv 26
rho 0.632672345320833
label 1 -1
nr_sv 11 15
SV
1.0 1:1.0 2:0.086 3:0.023 4:0.881 5:0.012 6:0.0 7:0.0 8:0.3 
1.0 1:0.0 2:0.116 3:0.04 4:0.656 5:0.351 6:0.001 7:0.0 8:0.1 
1.0 1:0.0 2:0.185 3:0.013 4:0.148 5:0.322 6:0.0 7:0.0 8:0.1 
1.0 1:1.0 2:0.648 3:0.353 4:0.38 5:0.304 6:0.008 7:0.012 8:0.7 
1.0 1:1.0 2:0.204 3:0.236 4:0.157 5:0.305 6:0.049 7:0.08 8:0.5 
1.0 1:0.0 2:0.066 3:0.023 4:0.815 5:0.012 6:0.0 7:0.0 8:0.1 
1.0 1:0.0 2:0.076 3:0.016 4:0.886 5:0.012 6:0.0 7:0.0 8:0.1 
1.0 1:1.0 2:0.108 3:0.023 4:0.87 5:0.012 6:0.0 7:0.0 8:0.3 
1.0 1:0.0 2:0.0 3:0.0 4:0.0 5:0.0 6:0.0 7:0.0 8:0.1 
1.0 1:0.0 2:0.065 3:0.007 4:0.372 5:0.092 6:0.002 7:0.0 8:0.1 
1.0 1:0.0 2:0.609 3:0.027 4:0.593 5:0.12 6:0.004 7:0.03 8:0.2 
-0.2737672026986654 1:1.0 2:0.0 3:0.0 4:0.0 5:0.0 6:0.0 7:0.0 8:0.0 
-1.0 1:0.0 2:0.22 3:0.023 4:0.351 5:0.849 6:0.008 7:0.0 8:0.1 
-0.8005611040395149 1:1.0 2:0.007 3:0.003 4:0.456 5:0.068 6:0.0 7:0.0 8:0.0 
-0.5171445909495826 1:1.0 2:0.889 3:0.025 4:0.491 5:0.013 6:0.019 7:0.066 8:0.3 
-1.0 1:1.0 2:0.87 3:0.023 4:0.5 5:0.012 6:0.015 7:0.066 8:0.7 
-0.2387560604088496 1:1.0 2:0.87 3:0.933 4:0.5 5:0.499 6:0.914 7:0.852 8:0.5 
-1.0 1:1.0 2:0.197 3:0.02 4:0.823 5:0.05 6:0.006 7:0.016 8:0.7 
-0.5814706698862765 1:1.0 2:0.0 3:0.0 4:0.0 5:0.0 6:0.003 7:0.0 8:0.5 
-0.5125409089027982 1:1.0 2:0.204 3:0.902 4:0.168 5:0.514 6:0.024 7:0.115 8:0.3 
-1.0 1:1.0 2:0.059 3:0.007 4:0.74 5:0.095 6:0.002 7:0.0 8:0.1 
-1.0 1:1.0 2:0.059 3:0.007 4:0.74 5:0.124 6:0.002 7:0.0 8:0.1 
-1.0 1:1.0 2:0.059 3:0.007 4:0.74 5:0.153 6:0.002 7:0.0 8:0.1 
-1.0 1:1.0 2:0.059 3:0.007 4:0.74 5:0.182 6:0.002 7:0.0 8:0.1 
-0.07575946311431261 1:1.0 2:0.059 3:0.007 4:0.74 5:0.211 6:0.002 7:0.0 8:0.1 
-1.0 1:0.0 2:0.0 3:0.0 4:0.0 5:0.0 6:0.001 7:0.0 8:0.1 
