svm_type c_svc
kernel_type rbf
gamma 0.1111111111111111
nr_class 2
total_sv 38
rho 0.8763671920974174
label 1 -1
nr_sv 16 22
SV
1.0 1:1.0 2:0.0 3:0.661 4:0.037 5:0.5 6:0.199 7:0.006 8:0.0 9:0.015 
1.0 1:1.0 2:0.0 3:0.661 4:0.031 5:0.5 6:0.167 7:0.006 8:0.0 9:0.012 
1.0 1:1.0 2:0.0 3:1.0 4:1.0 5:0.5 6:0.515 7:1.0 8:1.0 9:1.0 
1.0 1:1.0 2:1.0 3:1.0 4:1.0 5:0.5 6:0.539 7:1.0 8:1.0 9:1.0 
1.0 1:1.0 2:0.0 3:0.704 4:0.0 5:0.5 6:0.121 7:0.94 8:0.918 9:0.958 
1.0 1:1.0 2:0.0 3:0.463 4:0.015 5:0.576 6:0.167 7:0.003 8:0.0 9:0.0 
1.0 1:1.0 2:0.0 3:0.463 4:0.015 5:0.576 6:0.168 7:0.003 8:0.0 9:0.0 
1.0 1:1.0 2:0.0 3:0.446 4:0.586 5:0.494 6:0.513 7:0.0 8:0.0 9:0.0 
1.0 1:1.0 2:0.0 3:0.007 4:0.011 5:0.439 6:0.136 7:0.0 8:0.0 9:0.0 
1.0 1:1.0 2:0.0 3:0.007 4:0.011 5:0.439 6:0.136 7:0.0 8:0.0 9:0.0 
1.0 1:1.0 2:0.0 3:0.007 4:0.015 5:0.439 6:0.179 7:0.0 8:0.0 9:0.0 
1.0 1:1.0 2:0.0 3:0.007 4:0.011 5:0.439 6:0.136 7:0.0 8:0.0 9:0.0 
1.0 1:1.0 2:0.0 3:0.007 4:0.011 5:0.439 6:0.136 7:0.0 8:0.0 9:0.0 
1.0 1:1.0 2:0.0 3:0.061 4:0.009 5:0.735 6:0.111 7:0.004 8:0.0 9:0.011 
1.0 1:1.0 2:1.0 3:0.676 4:0.0 5:0.514 6:0.12 7:0.19 8:0.179 9:0.253 
1.0 1:1.0 2:0.0 3:0.081 4:0.008 5:0.649 6:0.433 7:0.002 8:0.0 9:0.0 
-0.0820057334101856 1:0.0 2:0.0 3:0.0 4:0.0 5:0.0 6:0.0 7:0.0 8:0.0 9:0.0 
-1.0 1:1.0 2:0.0 3:0.0 4:0.0 5:0.0 6:0.0 7:0.027 8:0.026 9:0.05 
-1.0 1:1.0 2:0.0 3:0.704 4:1.0 5:0.5 6:0.547 7:0.867 8:0.974 9:0.85 
-0.6883876331410426 1:1.0 2:0.0 3:0.426 4:0.058 5:0.5 6:0.278 7:0.189 8:0.231 9:0.05 
-1.0 1:1.0 2:0.0 3:0.099 4:0.056 5:0.8 6:0.298 7:0.009 8:0.026 9:0.0 
-1.0 1:1.0 2:0.0 3:1.0 4:0.0 5:0.5 6:0.039 7:0.267 8:0.077 9:0.167 
-0.6341767041337324 1:1.0 2:0.0 3:0.0 4:0.0 5:0.0 6:0.0 7:0.064 8:0.077 9:0.083 
-1.0 1:1.0 2:0.0 3:0.099 4:0.047 5:0.8 6:0.264 7:0.02 8:0.077 9:0.0 
-1.0 1:1.0 2:0.0 3:0.0 4:0.0 5:0.0 6:0.0 7:0.042 8:0.045 9:0.071 
-0.5740000291308617 1:1.0 2:0.0 3:0.704 4:1.0 5:0.5 6:0.534 7:0.791 8:0.955 9:0.786 
-0.19150757211675895 1:1.0 2:0.0 3:0.704 4:0.151 5:0.5 6:0.11 7:0.048 8:0.091 9:0.071 
-0.286367539562212 1:1.0 2:0.0 3:0.426 4:0.042 5:0.5 6:0.203 7:0.297 8:0.409 9:0.071 
-1.0 1:1.0 2:0.0 3:0.099 4:0.041 5:0.8 6:0.217 7:0.013 8:0.045 9:0.0 
-0.15253216641390344 1:1.0 2:0.0 3:0.102 4:0.037 5:0.211 6:0.301 7:0.01 8:0.045 9:0.0 
-1.0 1:1.0 2:1.0 3:0.69 4:0.001 5:0.493 6:0.807 7:0.0 8:0.0 9:0.0 
-0.3767607855147235 1:1.0 2:1.0 3:0.671 4:0.024 5:0.484 6:0.892 7:0.0 8:0.0 9:0.0 
-1.0 1:1.0 2:0.0 3:0.704 4:0.914 5:0.5 6:0.559 7:0.768 8:0.778 9:0.831 
-1.0 1:1.0 2:0.0 3:0.099 4:0.021 5:0.8 6:0.109 7:0.005 8:0.019 9:0.0 
-1.0 1:1.0 2:0.0 3:0.7 4:0.012 5:0.5 6:0.109 7:0.003 8:0.019 9:0.0 
-0.014261836576579708 1:1.0 2:0.0 3:0.704 4:0.811 5:0.5 6:0.546 7:0.727 8:0.667 9:0.779 
-1.0 1:1.0 2:0.0 3:0.237 4:0.019 5:0.279 6:0.141 7:0.025 8:0.037 9:0.013 
-1.0 1:1.0 2:0.0 3:0.661 4:0.047 5:0.5 6:0.19 7:0.016 8:0.019 9:0.039 
