svm_type c_svc
kernel_type rbf
gamma 0.125
nr_class 2
total_sv 56
rho 0.8305820242217953
label 1 -1
nr_sv 27 29
SV
1.0 1:0.0 2:0.972 3:0.06 4:0.5 5:0.365 6:0.007 7:0.0 8:0.2 
1.0 1:0.0 2:0.972 3:0.06 4:0.5 5:0.365 6:0.006 7:0.0 8:0.2 
1.0 1:1.0 2:0.972 3:0.06 4:0.5 5:0.288 6:0.034 7:0.0 8:0.1 
1.0 1:0.0 2:0.972 3:0.127 4:0.5 5:0.399 6:0.023 7:0.0 8:0.4 
1.0 1:0.0 2:0.972 3:0.06 4:0.5 5:0.365 6:0.002 7:0.0 8:0.2 
1.0 1:1.0 2:1.0 3:0.421 4:0.5 5:0.438 6:0.283 7:0.077 8:1.0 
1.0 1:0.0 2:0.972 3:0.06 4:0.5 5:0.397 6:0.019 7:0.0 8:0.2 
1.0 1:1.0 2:0.972 3:0.954 4:0.5 5:0.91 6:0.585 7:0.059 8:0.9 
1.0 1:1.0 2:0.972 3:0.252 4:0.5 5:0.559 6:0.182 7:0.059 8:0.9 
1.0 1:0.0 2:0.972 3:0.06 4:0.5 5:0.397 6:0.018 7:0.0 8:0.2 
1.0 1:0.0 2:0.972 3:0.06 4:0.5 5:0.365 6:0.006 7:0.0 8:0.2 
1.0 1:0.0 2:0.972 3:0.06 4:0.5 5:0.365 6:0.014 7:0.0 8:0.2 
1.0 1:1.0 2:1.0 3:1.0 4:0.5 5:8.046 6:0.731 7:0.667 8:1.0 
1.0 1:1.0 2:0.972 3:0.097 4:0.5 5:0.416 6:0.012 7:0.0 8:0.2 
1.0 1:0.0 2:0.972 3:0.06 4:0.5 5:0.397 6:0.015 7:0.0 8:0.2 
1.0 1:1.0 2:0.972 3:0.417 4:0.5 5:0.665 6:0.38 7:0.077 8:0.9 
1.0 1:1.0 2:0.204 3:0.45 4:0.884 5:0.483 6:0.039 7:0.08 8:0.9 
1.0 1:1.0 2:1.0 3:0.694 4:0.5 5:0.575 6:0.313 7:0.267 8:1.0 
1.0 1:0.0 2:0.972 3:0.159 4:0.5 5:0.415 6:0.068 7:0.091 8:0.4 
1.0 1:1.0 2:0.75 3:0.421 4:0.389 5:1.829 6:0.015 7:0.009 8:1.0 
1.0 1:1.0 2:0.972 3:0.06 4:0.5 5:0.288 6:0.006 7:0.0 8:0.1 
1.0 1:0.0 2:0.972 3:0.169 4:0.5 5:0.519 6:0.378 7:0.517 8:0.5 
1.0 1:0.0 2:0.972 3:0.232 4:0.5 5:0.483 6:0.37 7:0.5 8:0.4 
1.0 1:0.0 2:0.216 3:0.601 4:0.122 5:0.785 6:0.486 7:0.48 8:0.4 
1.0 1:0.0 2:0.527 3:0.601 4:0.277 5:0.668 6:0.787 7:0.8 8:0.4 
1.0 1:0.0 2:0.948 3:0.06 4:0.5 5:0.433 6:0.016 7:0.0 8:0.2 
0.9187243438010412 1:0.0 2:0.972 3:0.232 4:0.5 5:0.451 6:0.354 7:0.476 8:0.5 
-1.0 1:1.0 2:0.972 3:0.0 4:0.5 5:0.087 6:0.0 7:0.0 8:0.0 
-1.0 1:1.0 2:0.972 3:0.0 4:0.5 5:0.167 6:0.0 7:0.0 8:0.0 
-1.0 1:1.0 2:0.972 3:0.0 4:0.5 5:0.218 6:0.0 7:0.0 8:0.0 
-1.0 1:1.0 2:1.0 3:1.0 4:0.5 5:1.164 6:0.996 7:1.0 8:1.0 
-1.0 1:1.0 2:1.0 3:0.228 4:0.5 5:0.114 6:0.076 7:0.069 8:1.0 
-1.0 1:1.0 2:1.0 3:0.107 4:0.5 5:0.054 6:0.018 7:0.009 8:0.7 
-1.0 1:1.0 2:1.0 3:0.06 4:0.5 5:0.137 6:0.034 7:0.043 8:0.7 
-1.0 1:1.0 2:1.0 3:0.06 4:0.5 5:0.196 6:0.017 7:0.017 8:1.0 
-1.0 1:1.0 2:1.0 3:1.0 4:0.5 5:1.209 6:0.887 7:0.914 8:1.0 
-1.0 1:1.0 2:0.75 3:0.06 4:0.389 5:0.288 6:0.004 7:0.0 8:0.1 
-1.0 1:1.0 2:0.75 3:1.0 4:0.389 5:0.947 6:0.709 7:0.819 8:0.3 
-1.0 1:1.0 2:0.75 3:1.0 4:0.389 5:0.947 6:0.707 7:0.819 8:0.5 
-1.0 1:1.0 2:0.75 3:1.0 4:0.389 5:0.971 6:0.705 7:0.819 8:0.3 
-1.0 1:1.0 2:0.741 3:0.117 4:0.389 5:0.453 6:0.032 7:0.043 8:0.2 
-0.190128175266919 1:1.0 2:0.75 3:0.042 4:0.389 5:1.59 6:0.023 7:0.017 8:0.5 
-1.0 1:1.0 2:1.0 3:0.139 4:0.5 5:2.258 6:0.02 7:0.017 8:0.9 
-0.6749067167796458 1:1.0 2:0.972 3:0.026 4:0.5 5:2.285 6:0.006 7:0.009 8:0.7 
-1.0 1:0.0 2:0.107 3:0.036 4:0.068 5:0.058 6:0.004 7:0.009 8:0.3 
-1.0 1:0.0 2:0.143 3:0.03 4:0.248 5:0.138 6:0.003 7:0.009 8:0.1 
-1.0 1:0.0 2:0.123 3:0.03 4:0.875 5:0.138 6:0.003 7:0.009 8:0.1 
-1.0 1:0.0 2:0.049 3:0.03 4:0.962 5:0.138 6:0.002 7:0.009 8:0.1 
-1.0 1:0.0 2:0.056 3:0.03 4:0.815 5:0.277 6:0.002 7:0.0 8:0.1 
-1.0 1:0.0 2:0.064 3:0.026 4:0.819 5:0.632 6:0.0 7:0.0 8:0.1 
-0.5855965314014471 1:0.0 2:0.064 3:0.026 4:0.819 5:0.688 6:0.0 7:0.0 8:0.1 
-1.0 1:0.0 2:0.129 3:0.03 4:0.101 5:0.596 6:0.007 7:0.009 8:0.4 
-1.0 1:0.0 2:0.129 3:0.03 4:0.101 5:0.688 6:0.007 7:0.009 8:0.4 
-1.0 1:0.0 2:0.129 3:0.03 4:0.101 5:0.777 6:0.007 7:0.009 8:0.4 
-1.0 1:0.0 2:0.129 3:0.03 4:0.101 5:0.868 6:0.007 7:0.009 8:0.4 
-0.4680929203530291 1:0.0 2:0.129 3:0.03 4:0.101 5:0.959 6:0.007 7:0.009 8:0.4 
