svm_type c_svc
kernel_type rbf
gamma 0.125
nr_class 2
total_sv 33
rho -0.2632012665271759
label 1 -1
nr_sv 16 17
SV
1.0 1:0.0 2:0.661 3:0.033 4:0.5 5:0.177 6:0.006 7:0.0 8:0.1 
1.0 1:0.0 2:0.661 3:0.024 4:0.5 5:0.132 6:0.005 7:0.0 8:0.1 
1.0 1:0.0 2:1.0 3:1.0 4:0.5 5:0.512 6:1.0 7:1.0 8:0.5 
1.0 1:1.0 2:1.0 3:1.0 4:0.5 5:0.539 6:1.0 7:1.0 8:0.5 
1.0 1:0.0 2:0.704 3:0.0 4:0.5 5:0.11 6:0.947 7:0.929 8:0.5 
1.0 1:0.0 2:0.463 3:0.014 4:0.576 5:0.152 6:0.003 7:0.0 8:0.3 
1.0 1:0.0 2:0.463 3:0.014 4:0.576 5:0.153 6:0.003 7:0.0 8:0.3 
1.0 1:0.0 2:0.446 3:0.586 4:0.494 5:0.513 6:0.0 7:0.0 8:0.0 
1.0 1:0.0 2:0.007 3:0.011 4:0.439 5:0.136 6:0.0 7:0.0 8:0.1 
1.0 1:0.0 2:0.007 3:0.011 4:0.439 5:0.136 6:0.0 7:0.0 8:0.1 
1.0 1:0.0 2:0.007 3:0.015 4:0.439 5:0.179 6:0.0 7:0.0 8:0.1 
1.0 1:0.0 2:0.007 3:0.011 4:0.439 5:0.136 6:0.0 7:0.0 8:0.1 
1.0 1:0.0 2:0.007 3:0.011 4:0.439 5:0.136 6:0.0 7:0.0 8:0.1 
1.0 1:0.0 2:0.061 3:0.009 4:0.735 5:0.111 6:0.004 7:0.0 8:0.3 
1.0 1:1.0 2:0.676 3:0.0 4:0.514 5:0.12 6:0.189 7:0.179 8:0.7 
1.0 1:0.0 2:0.081 3:0.008 4:0.649 5:0.433 6:0.002 7:0.0 8:0.1 
-1.0 1:0.0 2:0.0 3:0.0 4:0.0 5:0.0 6:0.0 7:0.0 8:0.0 
-1.0 1:0.0 2:0.704 3:0.002 4:0.5 5:0.297 6:0.0 7:0.0 8:0.0 
-1.0 1:0.0 2:0.628 3:0.0 4:0.505 5:0.498 6:0.0 7:0.0 8:0.0 
-1.0 1:0.0 2:0.704 3:0.207 4:0.5 5:0.15 6:0.031 7:0.051 8:0.5 
-1.0 1:0.0 2:0.704 3:0.002 4:0.5 5:0.338 6:0.0 7:0.0 8:0.0 
-1.0 1:0.0 2:0.704 3:0.151 4:0.5 5:0.11 6:0.048 7:0.091 8:0.5 
-1.0 1:0.0 2:0.661 3:0.362 4:0.5 5:0.532 6:0.159 7:0.045 8:0.5 
-1.0 1:0.0 2:0.628 3:0.107 4:0.505 5:0.442 6:0.026 7:0.0 8:0.7 
-1.0 1:0.0 2:0.628 3:0.0 4:0.505 5:0.56 6:0.0 7:0.0 8:0.0 
-0.7150058267606031 1:0.0 2:1.0 3:0.0 4:0.5 5:0.039 6:0.267 7:0.077 8:0.3 
-1.0 1:0.0 2:0.704 3:0.172 4:0.5 5:0.125 6:0.073 7:0.154 8:0.5 
-1.0 1:0.0 2:0.661 3:0.254 4:0.5 5:0.544 6:0.19 7:0.077 8:0.5 
-1.0 1:0.0 2:0.661 3:0.122 4:0.5 5:0.796 6:0.167 7:0.231 8:0.5 
-0.2849941732393969 1:0.0 2:0.628 3:0.037 4:0.505 5:0.797 6:0.048 7:0.077 8:0.3 
-1.0 1:0.0 2:0.704 3:0.081 4:0.5 5:0.059 6:0.021 7:0.042 8:0.5 
-1.0 1:0.0 2:0.7 3:0.013 4:0.5 5:0.117 6:0.003 7:0.021 8:0.1 
-1.0 1:0.0 2:0.48 3:0.03 4:0.505 5:0.3 6:0.002 7:0.0 8:0.1 
